Language model created by QuickLM on Tue Nov 28 13:44:32 EST 2017
Copyright (c) 1996-2010 Carnegie Mellon University and Alexander I. Rudnicky

The model is in standard ARPA format, designed by Doug Paul while he was at MITRE.

The code that was used to produce this language model is available in Open Source.
Please visit http://www.speech.cs.cmu.edu/tools/ for more information

The (fixed) discount mass is 0.5. The backoffs are computed using the ratio method.
This model based on a corpus of 31 sentences and 32 words

\data\
ngram 1=32
ngram 2=57
ngram 3=57

\1-grams:
-0.9740 </s> -0.3010
-0.9740 <s> -0.2456
-1.9883 A -0.2965
-2.1644 ARE -0.2980
-2.1644 BLUE -0.2523
-2.4654 DOING -0.2523
-1.8633 FIRE -0.2890
-2.1644 GREEN -0.2523
-2.4654 HAY -0.2523
-2.4654 HELLO -0.2523
-2.4654 HEY -0.2523
-2.1644 HI -0.2473
-2.4654 HIGH -0.2523
-2.1644 HOW -0.2980
-2.4654 IS -0.2980
-2.1644 JUMP -0.2523
-1.4654 LIGHTS -0.2797
-1.9883 MISTER -0.2473
-1.8633 OFF -0.2523
-1.8633 ON -0.2523
-2.4654 PHOTO -0.2523
-2.4654 PICTURE -0.2523
-2.1644 RED -0.2523
-2.4654 SELFIE -0.2523
-1.9883 TAKE -0.2965
-1.6203 THE -0.2797
-1.9883 TRUMAN -0.2489
-1.3193 TURN -0.2686
-2.1644 UP -0.2523
-2.4654 WHAT -0.2995
-2.4654 WHATS -0.2980
-2.1644 YOU -0.2506

\2-grams:
-1.7924 <s> HAY 0.0000
-1.7924 <s> HELLO 0.0000
-1.7924 <s> HEY 0.0000
-1.4914 <s> HI 0.0000
-1.7924 <s> HIGH 0.0000
-1.4914 <s> HOW 0.0000
-1.7924 <s> JUMP 0.0000
-1.4914 <s> MISTER 0.0000
-1.3153 <s> TAKE 0.0000
-1.7924 <s> TRUMAN -0.1249
-0.6463 <s> TURN 0.0000
-1.7924 <s> WHAT 0.0000
-1.7924 <s> WHATS 0.0000
-0.7782 A PHOTO 0.0000
-0.7782 A PICTURE 0.0000
-0.7782 A SELFIE 0.0000
-0.3010 ARE YOU 0.0000
-0.3010 BLUE </s> -0.3010
-0.3010 DOING </s> -0.3010
-0.6021 FIRE OFF 0.0000
-0.6021 FIRE ON 0.0000
-0.3010 GREEN </s> -0.3010
-0.3010 HAY </s> -0.3010
-0.3010 HELLO </s> -0.3010
-0.3010 HEY </s> -0.3010
-0.6021 HI </s> -0.3010
-0.6021 HI MISTER -0.1249
-0.3010 HIGH </s> -0.3010
-0.3010 HOW ARE 0.0000
-0.3010 IS UP 0.0000
-0.3010 JUMP </s> -0.3010
-1.0000 LIGHTS BLUE 0.0000
-1.0000 LIGHTS GREEN 0.0000
-1.0000 LIGHTS OFF 0.0000
-1.0000 LIGHTS ON 0.0000
-1.0000 LIGHTS RED 0.0000
-0.7782 MISTER </s> -0.3010
-0.4771 MISTER TRUMAN 0.0000
-0.3010 OFF </s> -0.3010
-0.3010 ON </s> -0.3010
-0.3010 PHOTO </s> -0.3010
-0.3010 PICTURE </s> -0.3010
-0.3010 RED </s> -0.3010
-0.3010 SELFIE </s> -0.3010
-0.3010 TAKE A 0.0000
-0.8451 THE FIRE 0.0000
-0.4472 THE LIGHTS 0.0000
-0.4771 TRUMAN </s> -0.3010
-0.7782 TRUMAN JUMP 0.0000
-1.1461 TURN FIRE 0.0000
-0.7482 TURN LIGHTS 0.0000
-0.6021 TURN THE 0.0000
-0.3010 UP </s> -0.3010
-0.3010 WHAT IS 0.0000
-0.3010 WHATS UP 0.0000
-0.6021 YOU </s> -0.3010
-0.6021 YOU DOING 0.0000

\3-grams:
-0.3010 <s> HAY </s>
-0.3010 <s> HELLO </s>
-0.3010 <s> HEY </s>
-0.6021 <s> HI </s>
-0.6021 <s> HI MISTER
-0.3010 <s> HIGH </s>
-0.3010 <s> HOW ARE
-0.3010 <s> JUMP </s>
-0.6021 <s> MISTER </s>
-0.6021 <s> MISTER TRUMAN
-0.3010 <s> TAKE A
-0.3010 <s> TRUMAN </s>
-1.1461 <s> TURN FIRE
-0.7482 <s> TURN LIGHTS
-0.6021 <s> TURN THE
-0.3010 <s> WHAT IS
-0.3010 <s> WHATS UP
-0.3010 A PHOTO </s>
-0.3010 A PICTURE </s>
-0.3010 A SELFIE </s>
-0.6021 ARE YOU </s>
-0.6021 ARE YOU DOING
-0.3010 FIRE OFF </s>
-0.3010 FIRE ON </s>
-0.3010 HI MISTER TRUMAN
-0.3010 HOW ARE YOU
-0.3010 IS UP </s>
-0.3010 LIGHTS BLUE </s>
-0.3010 LIGHTS GREEN </s>
-0.3010 LIGHTS OFF </s>
-0.3010 LIGHTS ON </s>
-0.3010 LIGHTS RED </s>
-0.6021 MISTER TRUMAN </s>
-0.6021 MISTER TRUMAN JUMP
-0.7782 TAKE A PHOTO
-0.7782 TAKE A PICTURE
-0.7782 TAKE A SELFIE
-0.6021 THE FIRE OFF
-0.6021 THE FIRE ON
-1.0000 THE LIGHTS BLUE
-1.0000 THE LIGHTS GREEN
-1.0000 THE LIGHTS OFF
-1.0000 THE LIGHTS ON
-1.0000 THE LIGHTS RED
-0.3010 TRUMAN JUMP </s>
-0.6021 TURN FIRE OFF
-0.6021 TURN FIRE ON
-1.0000 TURN LIGHTS BLUE
-1.0000 TURN LIGHTS GREEN
-1.0000 TURN LIGHTS OFF
-1.0000 TURN LIGHTS ON
-1.0000 TURN LIGHTS RED
-0.8451 TURN THE FIRE
-0.4472 TURN THE LIGHTS
-0.3010 WHAT IS UP
-0.3010 WHATS UP </s>
-0.3010 YOU DOING </s>

\end\
