Language model created by QuickLM on Sat Dec  9 21:46:40 EST 2017
Copyright (c) 1996-2010 Carnegie Mellon University and Alexander I. Rudnicky

The model is in standard ARPA format, designed by Doug Paul while he was at MITRE.

The code that was used to produce this language model is available in Open Source.
Please visit http://www.speech.cs.cmu.edu/tools/ for more information

The (fixed) discount mass is 0.5. The backoffs are computed using the ratio method.
This model based on a corpus of 58 sentences and 44 words

\data\
ngram 1=44
ngram 2=101
ngram 3=94

\1-grams:
-0.9160 </s> -0.3010
-0.9160 <s> -0.1933
-2.2023 A -0.2955
-2.0774 ARE -0.2407
-2.2023 BLUE -0.2449
-2.3784 DO -0.2428
-2.6794 DOING -0.2449
-2.0774 FIDGET -0.2407
-1.9805 FIRE -0.2344
-2.2023 GREEN -0.2449
-2.6794 HAY -0.2449
-2.6794 HELLO -0.2449
-2.6794 HELP -0.2449
-2.6794 HEY -0.2449
-2.3784 HI -0.2428
-2.6794 HIGH -0.2449
-2.3784 HOT -0.2449
-2.3784 HOW -0.2974
-2.3784 IS -0.2983
-1.6380 LIGHTS -0.2247
-2.3784 MATH -0.2449
-2.3784 MISTER -0.2417
-2.6794 MY -0.2974
-1.9805 OFF -0.2449
-1.9805 ON -0.2449
-2.6794 OUT -0.3001
-2.3784 PHOTO -0.2449
-2.3784 PICTURE -0.2449
-2.6794 RAP -0.2449
-2.2023 RED -0.2449
-2.3784 SAYIAN -0.2449
-2.3784 SELFIE -0.2449
-2.0774 SPINNER -0.2449
-2.3784 SUPER -0.2428
-1.9805 TAKE -0.2407
-1.8343 THE -0.2862
-2.2023 TRUMAN -0.2407
-1.5033 TURN -0.2204
-2.3784 UP -0.2449
-2.6794 WHAT -0.2992
-2.6794 WHATS -0.2992
-2.6794 WHERE -0.2992
-2.0774 YOU -0.2417
-2.6794 YOUR -0.2974

\2-grams:
-2.0645 <s> ARE -0.2430
-2.0645 <s> BLUE 0.0000
-1.7634 <s> DO 0.0000
-1.7634 <s> FIDGET 0.0000
-2.0645 <s> FIRE -0.2553
-2.0645 <s> GREEN 0.0000
-2.0645 <s> HAY 0.0000
-2.0645 <s> HELLO 0.0000
-2.0645 <s> HELP 0.0000
-2.0645 <s> HEY 0.0000
-1.7634 <s> HI 0.0000
-2.0645 <s> HIGH 0.0000
-2.0645 <s> HOT 0.0000
-1.7634 <s> HOW 0.0000
-2.0645 <s> LIGHTS -0.2808
-2.0645 <s> MATH 0.0000
-2.0645 <s> MISTER -0.1761
-2.0645 <s> OFF 0.0000
-2.0645 <s> ON 0.0000
-2.0645 <s> PHOTO 0.0000
-2.0645 <s> PICTURE 0.0000
-2.0645 <s> RAP 0.0000
-2.0645 <s> RED 0.0000
-2.0645 <s> SAYIAN 0.0000
-2.0645 <s> SELFIE 0.0000
-2.0645 <s> SPINNER 0.0000
-1.7634 <s> SUPER 0.0000
-1.3655 <s> TAKE 0.0000
-1.7634 <s> TRUMAN 0.0000
-0.8884 <s> TURN 0.0000
-2.0645 <s> WHAT 0.0000
-2.0645 <s> WHATS 0.0000
-2.0645 <s> WHERE 0.0000
-2.0645 <s> YOU -0.1761
-0.7782 A PHOTO 0.0000
-0.7782 A PICTURE 0.0000
-0.7782 A SELFIE 0.0000
-0.9031 ARE </s> -0.3010
-0.4260 ARE YOU 0.0000
-0.3010 BLUE </s> -0.3010
-0.6021 DO </s> -0.3010
-0.6021 DO MATH 0.0000
-0.3010 DOING </s> -0.3010
-0.9031 FIDGET </s> -0.3010
-0.4260 FIDGET SPINNER 0.0000
-1.0000 FIRE </s> -0.3010
-0.6990 FIRE OFF 0.0000
-0.6990 FIRE ON 0.0000
-0.3010 GREEN </s> -0.3010
-0.3010 HAY </s> -0.3010
-0.3010 HELLO </s> -0.3010
-0.3010 HELP </s> -0.3010
-0.3010 HEY </s> -0.3010
-0.6021 HI </s> -0.3010
-0.6021 HI MISTER -0.1761
-0.3010 HIGH </s> -0.3010
-0.3010 HOT </s> -0.3010
-0.3010 HOW ARE -0.0969
-0.6021 IS MY 0.0000
-0.6021 IS UP 0.0000
-1.3424 LIGHTS </s> -0.3010
-1.0414 LIGHTS BLUE 0.0000
-1.0414 LIGHTS GREEN 0.0000
-1.0414 LIGHTS OFF 0.0000
-1.0414 LIGHTS ON 0.0000
-1.0414 LIGHTS RED 0.0000
-0.3010 MATH </s> -0.3010
-0.6021 MISTER </s> -0.3010
-0.6021 MISTER TRUMAN -0.1249
-0.3010 MY FIDGET -0.0969
-0.3010 OFF </s> -0.3010
-0.3010 ON </s> -0.3010
-0.3010 OUT YOUR 0.0000
-0.3010 PHOTO </s> -0.3010
-0.3010 PICTURE </s> -0.3010
-0.3010 RAP </s> -0.3010
-0.3010 RED </s> -0.3010
-0.3010 SAYIAN </s> -0.3010
-0.3010 SELFIE </s> -0.3010
-0.3010 SPINNER </s> -0.3010
-0.6021 SUPER </s> -0.3010
-0.6021 SUPER SAYIAN 0.0000
-1.0000 TAKE </s> -0.3010
-0.5229 TAKE A 0.0000
-1.0000 TAKE OUT 0.0000
-0.8451 THE FIRE -0.0792
-0.4472 THE LIGHTS -0.0378
-0.4771 TRUMAN </s> -0.3010
-0.7782 TRUMAN ARE -0.0969
-1.4771 TURN </s> -0.3010
-1.1761 TURN FIRE -0.0792
-0.7782 TURN LIGHTS -0.0378
-0.6320 TURN THE 0.0000
-0.3010 UP </s> -0.3010
-0.3010 WHAT IS -0.1761
-0.3010 WHATS UP 0.0000
-0.3010 WHERE IS -0.1761
-0.6021 YOU </s> -0.3010
-0.9031 YOU DOING 0.0000
-0.9031 YOU HOT 0.0000
-0.3010 YOUR FIDGET -0.0969

\3-grams:
-0.3010 <s> ARE </s>
-0.3010 <s> BLUE </s>
-0.6021 <s> DO </s>
-0.6021 <s> DO MATH
-0.6021 <s> FIDGET </s>
-0.6021 <s> FIDGET SPINNER
-0.3010 <s> FIRE </s>
-0.3010 <s> GREEN </s>
-0.3010 <s> HAY </s>
-0.3010 <s> HELLO </s>
-0.3010 <s> HELP </s>
-0.3010 <s> HEY </s>
-0.6021 <s> HI </s>
-0.6021 <s> HI MISTER
-0.3010 <s> HIGH </s>
-0.3010 <s> HOT </s>
-0.3010 <s> HOW ARE
-0.3010 <s> LIGHTS </s>
-0.3010 <s> MATH </s>
-0.3010 <s> MISTER </s>
-0.3010 <s> OFF </s>
-0.3010 <s> ON </s>
-0.3010 <s> PHOTO </s>
-0.3010 <s> PICTURE </s>
-0.3010 <s> RAP </s>
-0.3010 <s> RED </s>
-0.3010 <s> SAYIAN </s>
-0.3010 <s> SELFIE </s>
-0.3010 <s> SPINNER </s>
-0.6021 <s> SUPER </s>
-0.6021 <s> SUPER SAYIAN
-1.0000 <s> TAKE </s>
-0.5229 <s> TAKE A
-1.0000 <s> TAKE OUT
-0.6021 <s> TRUMAN </s>
-0.6021 <s> TRUMAN ARE
-1.4771 <s> TURN </s>
-1.1761 <s> TURN FIRE
-0.7782 <s> TURN LIGHTS
-0.6320 <s> TURN THE
-0.3010 <s> WHAT IS
-0.3010 <s> WHATS UP
-0.3010 <s> WHERE IS
-0.3010 <s> YOU </s>
-0.3010 A PHOTO </s>
-0.3010 A PICTURE </s>
-0.3010 A SELFIE </s>
-0.7782 ARE YOU </s>
-0.7782 ARE YOU DOING
-0.7782 ARE YOU HOT
-0.3010 DO MATH </s>
-0.3010 FIDGET SPINNER </s>
-0.3010 FIRE OFF </s>
-0.3010 FIRE ON </s>
-0.3010 HI MISTER TRUMAN
-0.3010 HOW ARE YOU
-0.3010 IS MY FIDGET
-0.3010 IS UP </s>
-0.3010 LIGHTS BLUE </s>
-0.3010 LIGHTS GREEN </s>
-0.3010 LIGHTS OFF </s>
-0.3010 LIGHTS ON </s>
-0.3010 LIGHTS RED </s>
-0.3010 MISTER TRUMAN </s>
-0.3010 MY FIDGET SPINNER
-0.3010 OUT YOUR FIDGET
-0.3010 SUPER SAYIAN </s>
-0.7782 TAKE A PHOTO
-0.7782 TAKE A PICTURE
-0.7782 TAKE A SELFIE
-0.3010 TAKE OUT YOUR
-0.6021 THE FIRE OFF
-0.6021 THE FIRE ON
-1.0000 THE LIGHTS BLUE
-1.0000 THE LIGHTS GREEN
-1.0000 THE LIGHTS OFF
-1.0000 THE LIGHTS ON
-1.0000 THE LIGHTS RED
-0.3010 TRUMAN ARE YOU
-0.6021 TURN FIRE OFF
-0.6021 TURN FIRE ON
-1.0000 TURN LIGHTS BLUE
-1.0000 TURN LIGHTS GREEN
-1.0000 TURN LIGHTS OFF
-1.0000 TURN LIGHTS ON
-1.0000 TURN LIGHTS RED
-0.8451 TURN THE FIRE
-0.4472 TURN THE LIGHTS
-0.3010 WHAT IS UP
-0.3010 WHATS UP </s>
-0.3010 WHERE IS MY
-0.3010 YOU DOING </s>
-0.3010 YOU HOT </s>
-0.3010 YOUR FIDGET SPINNER

\end\
