Language model created by QuickLM on Mon Nov 13 14:37:53 EST 2017
Copyright (c) 1996-2010 Carnegie Mellon University and Alexander I. Rudnicky

The model is in standard ARPA format, designed by Doug Paul while he was at MITRE.

The code that was used to produce this language model is available in Open Source.
Please visit http://www.speech.cs.cmu.edu/tools/ for more information

The (fixed) discount mass is 0.5. The backoffs are computed using the ratio method.
This model based on a corpus of 25 sentences and 36 words

\data\
ngram 1=36
ngram 2=63
ngram 3=55

\1-grams:
-0.9523 </s> -0.3010
-0.9523 <s> -0.2408
-2.0492 A -0.2952
-2.3502 AGREES -0.2991
-2.3502 ARE -0.2971
-2.3502 CAN -0.2971
-2.3502 CAPTURE -0.2496
-1.8731 COOL -0.2496
-2.3502 DO -0.2496
-2.3502 ERIC -0.2991
-2.0492 FIREPLACE -0.2932
-2.3502 HELLO -0.2496
-2.3502 HELP -0.2496
-2.0492 HEY -0.2452
-2.3502 HOW -0.2991
-1.6513 IS -0.2832
-2.0492 LIGHTS -0.2932
-2.3502 MAX -0.2912
-2.0492 MISTER -0.2952
-2.3502 NOOB -0.2496
-2.0492 NOT -0.2952
-2.0492 OFF -0.2496
-2.0492 ON -0.2496
-2.3502 PHOTO -0.2496
-2.0492 PICTURE -0.2496
-2.3502 SELFIE -0.2496
-1.7482 SPENCER -0.2386
-2.0492 TAKE -0.2452
-2.3502 THAT -0.2932
-2.3502 TODAY -0.2971
-1.8731 TRUMAN -0.2496
-1.6513 TURN -0.2408
-2.0492 UP -0.2496
-2.0492 WHAT -0.2892
-2.3502 WHAT'S -0.2971
-2.0492 YOU -0.2971

\2-grams:
-1.6990 <s> CAPTURE 0.0000
-1.6990 <s> ERIC 0.0000
-1.6990 <s> HELLO 0.0000
-1.6990 <s> HELP 0.0000
-1.3979 <s> HEY 0.0000
-1.6990 <s> HOW 0.0000
-1.6990 <s> MAX 0.0000
-1.6990 <s> PHOTO 0.0000
-1.6990 <s> PICTURE 0.0000
-1.6990 <s> SELFIE 0.0000
-1.2218 <s> SPENCER 0.0000
-1.3979 <s> TAKE 0.0000
-1.6990 <s> TRUMAN 0.0000
-1.0000 <s> TURN 0.0000
-1.3979 <s> WHAT 0.0000
-1.6990 <s> WHAT'S 0.0000
-0.6021 A NOOB 0.0000
-0.6021 A PICTURE 0.0000
-0.3010 AGREES THAT 0.0000
-0.3010 ARE YOU -0.1761
-0.3010 CAN YOU -0.1761
-0.3010 CAPTURE </s> -0.3010
-0.3010 COOL </s> -0.3010
-0.3010 DO </s> -0.3010
-0.3010 ERIC AGREES 0.0000
-0.6021 FIREPLACE OFF 0.0000
-0.6021 FIREPLACE ON 0.0000
-0.3010 HELLO </s> -0.3010
-0.3010 HELP </s> -0.3010
-0.6021 HEY </s> -0.3010
-0.6021 HEY MISTER 0.0000
-0.3010 HOW ARE 0.0000
-1.0000 IS A -0.1761
-1.0000 IS COOL 0.0000
-0.6990 IS NOT 0.0000
-1.0000 IS UP 0.0000
-0.6021 LIGHTS OFF 0.0000
-0.6021 LIGHTS ON 0.0000
-0.3010 MAX IS -0.2553
-0.3010 MISTER TRUMAN 0.0000
-0.3010 NOOB </s> -0.3010
-0.3010 NOT COOL 0.0000
-0.3010 OFF </s> -0.3010
-0.3010 ON </s> -0.3010
-0.3010 PHOTO </s> -0.3010
-0.3010 PICTURE </s> -0.3010
-0.3010 SELFIE </s> -0.3010
-0.9031 SPENCER </s> -0.3010
-0.4260 SPENCER IS -0.1461
-0.6021 TAKE </s> -0.3010
-0.6021 TAKE A -0.1761
-0.3010 THAT SPENCER -0.0969
-0.3010 TODAY MISTER 0.0000
-0.3010 TRUMAN </s> -0.3010
-1.0000 TURN </s> -0.3010
-0.6990 TURN FIREPLACE 0.0000
-0.6990 TURN LIGHTS 0.0000
-0.3010 UP </s> -0.3010
-0.6021 WHAT CAN 0.0000
-0.6021 WHAT IS -0.2553
-0.3010 WHAT'S UP 0.0000
-0.6021 YOU DO 0.0000
-0.6021 YOU TODAY 0.0000

\3-grams:
-0.3010 <s> CAPTURE </s>
-0.3010 <s> ERIC AGREES
-0.3010 <s> HELLO </s>
-0.3010 <s> HELP </s>
-0.6021 <s> HEY </s>
-0.6021 <s> HEY MISTER
-0.3010 <s> HOW ARE
-0.3010 <s> MAX IS
-0.3010 <s> PHOTO </s>
-0.3010 <s> PICTURE </s>
-0.3010 <s> SELFIE </s>
-0.7782 <s> SPENCER </s>
-0.4771 <s> SPENCER IS
-0.6021 <s> TAKE </s>
-0.6021 <s> TAKE A
-0.3010 <s> TRUMAN </s>
-1.0000 <s> TURN </s>
-0.6990 <s> TURN FIREPLACE
-0.6990 <s> TURN LIGHTS
-0.6021 <s> WHAT CAN
-0.6021 <s> WHAT IS
-0.3010 <s> WHAT'S UP
-0.3010 A NOOB </s>
-0.3010 A PICTURE </s>
-0.3010 AGREES THAT SPENCER
-0.3010 ARE YOU TODAY
-0.3010 CAN YOU DO
-0.3010 ERIC AGREES THAT
-0.3010 FIREPLACE OFF </s>
-0.3010 FIREPLACE ON </s>
-0.3010 HEY MISTER TRUMAN
-0.3010 HOW ARE YOU
-0.3010 IS A NOOB
-0.3010 IS COOL </s>
-0.3010 IS NOT COOL
-0.3010 IS UP </s>
-0.3010 LIGHTS OFF </s>
-0.3010 LIGHTS ON </s>
-0.3010 MAX IS COOL
-0.3010 MISTER TRUMAN </s>
-0.3010 NOT COOL </s>
-0.7782 SPENCER IS A
-0.4771 SPENCER IS NOT
-0.3010 TAKE A PICTURE
-0.3010 THAT SPENCER IS
-0.3010 TODAY MISTER TRUMAN
-0.6021 TURN FIREPLACE OFF
-0.6021 TURN FIREPLACE ON
-0.6021 TURN LIGHTS OFF
-0.6021 TURN LIGHTS ON
-0.3010 WHAT CAN YOU
-0.3010 WHAT IS UP
-0.3010 WHAT'S UP </s>
-0.3010 YOU DO </s>
-0.3010 YOU TODAY MISTER

\end\
