Language model created by QuickLM on Mon Nov 13 14:07:00 EST 2017
Copyright (c) 1996-2010 Carnegie Mellon University and Alexander I. Rudnicky

The model is in standard ARPA format, designed by Doug Paul while he was at MITRE.

The code that was used to produce this language model is available in Open Source.
Please visit http://www.speech.cs.cmu.edu/tools/ for more information

The (fixed) discount mass is 0.5. The backoffs are computed using the ratio method.
This model based on a corpus of 8 sentences and 11 words

\data\
ngram 1=11
ngram 2=17
ngram 3=14

\1-grams:
-0.9031 </s> -0.3010
-0.9031 <s> -0.2430
-1.5051 FAN -0.2730
-1.8062 HELLO -0.2430
-1.8062 HEY -0.2430
-1.5051 LIGHTS -0.2730
-1.5051 OFF -0.2430
-1.5051 ON -0.2430
-1.8062 SPENCER -0.2430
-1.8062 TRUMAN -0.2430
-1.2041 TURN -0.2730

\2-grams:
-1.2041 <s> HELLO 0.0000
-1.2041 <s> HEY 0.0000
-1.2041 <s> SPENCER 0.0000
-1.2041 <s> TRUMAN 0.0000
-0.6021 <s> TURN 0.0000
-0.6021 FAN OFF 0.0000
-0.6021 FAN ON 0.0000
-0.3010 HELLO </s> -0.3010
-0.3010 HEY </s> -0.3010
-0.6021 LIGHTS OFF 0.0000
-0.6021 LIGHTS ON 0.0000
-0.3010 OFF </s> -0.3010
-0.3010 ON </s> -0.3010
-0.3010 SPENCER </s> -0.3010
-0.3010 TRUMAN </s> -0.3010
-0.6021 TURN FAN 0.0000
-0.6021 TURN LIGHTS 0.0000

\3-grams:
-0.3010 <s> HELLO </s>
-0.3010 <s> HEY </s>
-0.3010 <s> SPENCER </s>
-0.3010 <s> TRUMAN </s>
-0.6021 <s> TURN FAN
-0.6021 <s> TURN LIGHTS
-0.3010 FAN OFF </s>
-0.3010 FAN ON </s>
-0.3010 LIGHTS OFF </s>
-0.3010 LIGHTS ON </s>
-0.6021 TURN FAN OFF
-0.6021 TURN FAN ON
-0.6021 TURN LIGHTS OFF
-0.6021 TURN LIGHTS ON

\end\
